tree
version=v4
num_class=1
num_tree_per_iteration=1
label_index=0
max_feature_idx=10
objective=binary sigmoid:1
feature_names=user_name department ip_transform device_num_transform browser_version os_version http_status_code op_city log_system_transform url is_workday
feature_infos=[-0.4045321452554701:0.67614084438952082] [-0.15268659905634019:0.041809354796559402] [-2.3404255160673122:1.065522468353441] [-2.3404255160673122:0.76014081880225914] [-0.058099979258087402:0.090276931778170894] [-0.012461579311819401:0.090276931778170894] [-4.7552225996682855:0.29880897715900417] [-5.5458783206033724:0.39901099885556868] [-0.53049265865989659:0.28513212774554753] [-5.1736388601235284:0.78025597381670087] [-4.7906466078674228:0.1797496580506002]
tree_sizes=3351 3418 3431 3467 3450 3486 3462 3479

Tree=0
num_leaves=31
num_cat=0
split_feature=2 10 6 9 2 9 0 2 0 0 2 2 2 7 3 3 2 1 3 2 0 3 3 7 0 2 2 3 6 0
split_gain=7742.83 5560.97 5010.42 166.732 118.671 44.7864 35.2028 23.246 18.6891 9.45073 9.00715 7.58362 9.25506 6.82534 6.13611 8.56051 5.91954 5.35202 5.15709 5.06552 4.2942 4.1001 7.51857 3.85766 3.84741 3.60982 8.54769 4.62259 4.44846 3.35305
threshold=-1.6472783355073666 1.0000000180025095e-35 1.0000000180025095e-35 -0.41237732204752287 -0.55487730683853564 0.53269405078112431 0.094676427437865612 0.011559869298780102 -0.13946898973682967 0.23850724947215798 0.42167805569782363 0.5123345312100589 0.68725123727106674 0.10384874262389486 0.0075258344941534511 0.019313923539483701 0.58530077067149489 -0.057718428064609438 0.1000427772907929 -0.061080590014537146 -0.20101337490104895 -0.042672055096691142 -0.040227062449595292 0.092435536244338465 0.41027395722993709 0.44988499218621741 0.42714259096391877 0.18692212587783094 -3.0261133168365602 -0.24737580315523791
decision_type=2 2 2 2 2 2 2 2 2 2 2 2 2 2 2 2 2 2 2 2 2 2 2 2 2 2 2 2 2 2
left_child=-1 16 4 8 -3 7 13 19 23 21 -9 25 -13 14 17 -16 -2 -6 -17 29 -15 -10 -23 -4 -18 26 27 -8 -29 -5
right_child=1 2 3 5 6 -7 11 10 9 -11 -12 12 -14 20 15 18 24 -19 -20 -21 -22 22 -24 -25 -26 -27 -28 28 -30 -31
leaf_value=-1.337608302420108 -1.3502489569089398 -1.7068686335484065 -1.6453252450270233 -1.6731090194162479 -1.4309844781077237 -1.6999638825183485 -1.436077724054321 -1.6807079152134241 -1.6762669486482711 -1.6761538185747031 -1.686230017675447 -1.4156210484331289 -1.5068526208539113 -1.4196661537819522 -1.4924594090222976 -1.4277078232154128 -1.403744481129654 -1.3935865972985999 -1.3891329997868471 -1.6644944971894213 -1.3718443596108112 -1.5837818565056403 -1.6558658253815144 -1.6287379841409075 -1.3481585975952022 -1.4877471183733721 -1.4032545835095831 -1.4578325962758329 -1.5183101665892751 -1.6912660843458023
leaf_weight=194.30735684931278 130.53121393918991 3.6559572368860236 100.74193274974823 214.75363621115685 11.780306652188299 347.58674915134907 6.0932620614767137 2092.8324093818665 24.508454069495201 73.254550561308861 1141.0648753792048 19.227626949548725 3.2497397661209098 6.0932620614767101 4.1975805312395087 33.851455897092819 9.0721901804208738 50.9125896692276 11.644900828599928 198.23412573337555 20.446279361844063 3.6559572368860236 343.11835697293282 53.756111964583397 4.7392038255929938 12.321929946541784 6.0932620614767066 5.8224504142999667 6.3640737086534465 28.841440424323082
leaf_count=1435 964 27 744 1586 87 2567 45 15456 181 541 8427 142 24 45 31 250 67 376 86 1464 151 27 2534 397 35 91 45 43 47 213
internal_value=-1.64724 -1.65935 -1.6685 -1.67914 -1.4246 -1.68281 -1.41939 -1.68119 -1.65453 -1.65974 -1.68266 -1.45168 -1.42881 -1.40563 -1.41102 -1.42414 -1.35354 -1.40061 -1.41783 -1.67043 -1.38282 -1.6565 -1.65511 -1.63955 -1.38467 -1.46569 -1.45454 -1.47164 -1.48942 -1.67526
internal_weight=5162.75 4968.45 4824.1 4622.35 201.755 4023.31 198.099 3675.73 599.035 444.537 3233.9 59.1723 22.4774 138.926 112.387 49.6939 144.343 62.6929 45.4964 441.829 26.5395 371.283 346.774 154.498 13.8114 36.695 24.373 18.2798 12.1865 243.595
internal_count=38128 36693 35627 34137 1490 29713 1463 27146 4424 3283 23883 437 166 1026 830 367 1066 463 336 3263 196 2742 2561 1141 102 271 180 135 90 1799
is_linear=0
shrinkage=1


Tree=1
num_leaves=31
num_cat=0
split_feature=2 10 6 9 2 9 2 2 0 0 2 2 2 2 7 3 6 4 3 3 1 2 7 0 0 0 2 2 2 0
split_gain=5736.8 4223.77 4035.46 158.546 83.1079 44.0533 22.3853 20.2565 17.011 8.83855 8.76941 6.09141 5.99047 4.79722 4.60794 3.99214 4.80425 4.00952 3.82278 6.56469 3.75959 3.52396 3.41359 3.39225 3.8707 3.45585 3.32005 3.29288 5.76441 3.2422
threshold=-1.6472783355073666 1.0000000180025095e-35 1.0000000180025095e-35 -0.41237732204752287 -0.55487730683853564 0.53269405078112431 0.011559869298780102 0.33522867326310263 -0.13946898973682967 0.23850724947215798 0.42167805569782363 0.5123345312100589 0.68725123727106674 -0.061080590014537146 0.10384874262389486 -0.024096800470558895 -3.0261133168365602 0.086563595226488418 -0.042672055096691142 -0.040227062449595292 -0.057718428064609438 0.27248250567709681 0.092435536244338465 -0.0036147499228858996 -0.044956155134247444 -0.070035155035350447 0.058633901610853904 0.44988499218621741 0.42714259096391877 -0.24737580315523791
decision_type=2 2 2 2 2 2 2 2 2 2 2 2 2 2 2 2 2 2 2 2 2 2 2 2 2 2 2 2 2 2
left_child=-1 -2 4 8 -3 6 13 14 22 18 -8 27 -13 29 15 20 23 21 -10 -20 -6 -18 -4 24 25 -17 -22 28 -9 -5
right_child=1 2 3 5 7 -7 10 11 9 -11 -12 12 -14 -15 -16 16 17 -19 19 -21 26 -23 -24 -25 -26 -27 -28 -29 -30 -31
leaf_value=0.24049602817507792 0.23032782021459966 -0.059071653848040945 0.0018162188028611967 -0.02502393393841483 0.1779444582045237 -0.051976167538176056 -0.032547805134893339 0.14626260306279665 -0.028140977581236556 -0.028029073600337247 -0.0380658117192548 0.19078773976154828 0.12130188582922499 -0.016590531769768942 0.21343211155613295 0.18196646596973029 0.16498699549766138 0.12390999206449112 0.057715935439783185 -0.0082442669058300066 0.19889392749529891 0.20023179976744709 0.017352818667457439 0.21831942874717614 0.16715826925981045 0.2442242405944145 0.22758214473015026 0.13168371087386135 0.19564046854831743 -0.043135504784463367
leaf_weight=236.31539963185787 173.91521987318993 3.509634554386138 100.87253129482269 211.00606581568718 13.547416627407072 335.27331760525703 2045.6356515884399 19.242089673876766 24.028778418898582 71.826386347413063 1111.1105334162712 23.917937040328983 3.5639441013336173 195.92390727996826 30.258922576904297 4.9125183522701263 21.139867782592777 4.0362375527620307 3.8143410086631766 341.11683690547943 32.337924093008041 10.672800272703169 54.431171283125877 12.121482878923414 12.440386235713961 4.0804245769977552 14.655610918998716 13.990119323134421 8.5310537070035917 27.987159803509712
leaf_count=1435 1066 27 744 1586 87 2567 15456 126 181 541 8427 152 24 1464 189 31 135 26 27 2534 203 68 397 77 80 26 92 93 54 213
internal_value=-0.000157267 -0.011693 -0.0205431 -0.0309957 0.182399 -0.0346429 -0.0330249 0.186092 -0.00696839 -0.0119821 -0.03449 0.163495 0.181777 -0.0223903 0.195859 0.191767 0.183582 0.170855 -0.00885815 -0.00751486 0.201151 0.176811 0.00726152 0.197179 0.185224 0.210215 0.207841 0.151465 0.16143 -0.0271449
internal_weight=5166.22 4929.9 4755.99 4523.03 232.958 3926.94 3591.66 229.449 596.09 440.786 3156.75 69.2451 27.4819 434.917 160.204 129.945 69.4037 35.8489 368.96 344.931 60.541 31.8127 155.304 33.5548 21.4333 8.99294 46.9935 41.7633 27.7731 238.993
internal_count=38128 36693 35627 34137 1490 29713 27146 1463 4424 3283 23883 449 176 3263 1014 825 443 229 2742 2561 382 203 1141 214 137 57 295 273 180 1799
is_linear=0
shrinkage=0.05


Tree=2
num_leaves=31
num_cat=0
split_feature=2 10 6 9 2 9 2 0 0 2 0 2 2 2 2 3 3 7 1 2 8 3 2 0 0 0 2 1 3 7
split_gain=4547.17 3403.41 3368.23 150.646 62.4974 43.3488 21.5409 15.4803 14.4232 8.53544 8.34132 4.54704 3.48826 3.26699 3.78394 3.21477 5.95523 3.0246 2.94415 2.79661 2.75218 2.68008 3.97483 3.08021 2.77933 4.71307 3.92897 2.37399 2.36943 2.34861
threshold=-1.6472783355073666 1.0000000180025095e-35 1.0000000180025095e-35 -0.41237732204752287 -0.55487730683853564 0.53269405078112431 0.011559869298780102 -0.13946898973682967 0.094676427437865612 0.42167805569782363 0.29904163097446862 -0.031876137640629493 -0.55487730683853564 0.5123345312100589 0.68725123727106674 -0.042672055096691142 -0.040227062449595292 0.092435536244338465 -0.057718428064609438 0.58530077067149489 0.27094448771442875 0.012935342701238103 0.14233980282468772 0.073810024600364468 -0.20101337490104895 -0.16954432146212631 0.098806244426574111 -0.11952209134932869 -0.16505992096399005 1.0000000180025095e-35
decision_type=2 2 2 2 2 2 2 2 2 2 2 2 2 2 2 2 2 2 2 2 2 2 2 2 2 2 2 2 2 2
left_child=-1 19 4 7 -3 6 11 17 18 -8 15 12 -5 -10 -15 -9 -17 -4 28 -2 29 24 -23 -24 -20 -26 -27 -18 -6 -13
right_child=1 2 3 5 8 -7 9 10 13 -11 -12 20 -14 14 -16 16 27 -19 21 -21 -22 22 23 -25 25 26 -28 -29 -30 -31
leaf_value=0.19977516504467635 0.19400342762995018 -0.058551293218729976 0.00172323538195578 -0.058837005178753288 0.16499880923587051 -0.051249137502025838 -0.031641482937456195 -0.027270758553231224 0.1313397933783437 -0.037153829946211969 -0.033941314064640037 0.011989075605418302 -0.023813937918396876 0.15999606501574687 0.10668604160000983 0.052754427851113922 0.033911177812018765 0.016289724920401243 0.1616300618163849 0.17362628835838934 0.0077911754099146543 0.12406834727426584 0.16056680306107163 0.1930877303986927 0.21275837592228239 0.15569886002261893 0.18490072155528617 -0.00925639798310628 0.12917729834474292 -0.018085577916423706
leaf_weight=269.26427155733109 178.81926679611206 3.3673840686678878 100.99651122093201 7.2750278562307349 9.1590841710567492 323.33172675967216 2000.189037322998 23.567680463194847 45.403149664402008 1082.2064763754606 37.766253352165222 7.0128518939018241 312.50707748532295 24.923626691102985 3.841713309288024 3.9604347646236411 3.2127091884613028 55.067328557372093 30.651805803179741 18.588075637817383 14.158021748065947 6.6474383026361457 58.613754868507385 8.313792407512663 9.3483914136886579 18.342709109187126 30.960811346769333 368.68317937850952 9.3073583096265775 87.329853773117065
leaf_count=1435 964 27 744 57 53 2567 15456 181 271 8427 290 53 2386 142 24 27 24 397 172 102 107 39 335 46 52 103 172 2761 54 660
internal_value=-0.000255634 -0.0112847 -0.0198518 -0.0301023 0.155448 -0.0337304 -0.0321169 -0.00665528 0.158268 -0.0335768 -0.0114809 -0.0216098 -0.0246107 0.139692 0.152876 -0.00935725 -0.008234 0.00686304 0.165865 0.192085 -0.0127651 0.16801 0.160944 0.164607 0.173832 0.180208 0.174037 -0.00888348 0.146944 -0.01585
internal_weight=5152.82 4883.55 4686.15 4427.26 258.881 3834.01 3510.68 593.254 255.514 3082.4 437.19 428.283 319.782 74.1685 28.7653 399.424 375.856 156.064 181.345 197.407 108.501 162.879 73.575 66.9275 89.3037 58.6519 49.3035 371.896 18.4664 94.3427
internal_count=38128 36693 35627 34137 1490 29713 27146 4424 1463 23883 3283 3263 2443 437 166 2993 2812 1141 1026 1066 820 919 420 381 499 327 275 2785 107 713
is_linear=0
shrinkage=0.05


Tree=3
num_leaves=31
num_cat=0
split_feature=2 10 6 9 2 9 2 0 0 2 0 2 3 3 9 2 7 0 2 0 7 1 8 0 0 4 2 4 8 3
split_gain=3749.11 2839.55 2875.89 143.023 49.1969 42.6629 20.7105 14.0843 10.6589 8.30394 7.8929 4.38264 3.32992 5.05814 3.25482 3.04807 2.68319 2.5049 2.49384 3.32486 2.49088 2.36161 2.21531 2.18865 6.03136 2.15317 5.15924 2.12725 2.10165 3.16089
threshold=-1.6472783355073666 1.0000000180025095e-35 1.0000000180025095e-35 -0.41237732204752287 -0.55487730683853564 0.53269405078112431 0.011559869298780102 -0.13946898973682967 0.094676427437865612 0.42167805569782363 0.23850724947215798 -0.061080590014537146 -0.042672055096691142 -0.040227062449595292 0.17385929787336815 -0.15070586051284676 0.092435536244338465 0.41487113454634811 0.51579475263234575 0.41487113454634811 1.0000000180025095e-35 -0.11952209134932869 0.27094448771442875 0.36833200342963029 0.29904163097446862 0.072740182982586957 0.50240871599965131 -0.049628353001755589 0.24335001676778972 -0.12016270958217494
decision_type=2 2 2 2 2 2 2 2 2 2 2 2 2 2 2 2 2 2 2 2 2 2 2 2 2 2 2 2 2 2
left_child=-1 -2 4 7 -3 6 11 16 21 -8 12 14 -9 -14 -5 -16 -4 -12 -10 23 -13 -6 28 24 -20 -15 -27 -17 -22 -30
right_child=1 2 3 5 8 -7 9 10 18 -11 17 20 13 25 15 27 -18 -19 19 -21 22 -23 -24 -25 -26 26 -28 -29 29 -31
leaf_value=0.17265310935369418 0.16623434099528994 -0.058064981725470421 0.0016351161614627724 -0.015134943289498444 0.10990808080192963 -0.050540542852026464 -0.030748954214910692 -0.026416544165133279 0.11615474655940722 -0.036253570513856158 -0.022009704868292689 0.0058243510651828593 0.04842217623025856 -0.0088874742236981982 -0.051422078290129847 -0.0048122094786689999 0.015304137589883924 -0.046758030802909467 0.150959011564923 0.10216348957750901 -0.015600931436121741 0.14533158832570067 -0.0056108834180908056 0.17436016460314444 0.081809405594764725 0.011604718085832182 -0.04104487817927293 -0.028453659907773904 -0.039043188191375498 -0.010802993955436446
leaf_weight=295.22399142384529 216.15204192698002 3.2293013334274283 101.11419403553009 57.084137037396431 4.8229458779096595 311.76582086831331 1956.4617047309875 23.124731361865997 50.905077993869781 1054.3416539132595 56.897889003157616 13.058180779218672 4.0953602045774451 300.02215573191643 13.824455805122851 10.161909878253935 55.667038828134537 12.464203208684919 14.217637091875085 6.238325595855712 99.951513081789017 192.50693778693676 35.450511410832405 4.5553337484598151 4.0521032065153113 31.690252959728241 5.4537985622882834 149.47416239976883 27.39591084420681 15.523092180490492
leaf_count=1435 1066 27 744 444 26 2567 15456 181 282 8427 443 99 27 2255 110 79 397 98 75 34 766 1000 270 24 22 238 41 1166 210 119
internal_value=-0.000320565 -0.0108895 -0.0191844 -0.0292245 0.135966 -0.0328311 -0.0312227 -0.00635521 0.138225 -0.0326766 -0.0109976 -0.0208482 -0.00805492 -0.00681069 -0.0254911 -0.0288992 0.00648846 -0.0264569 0.122826 0.134512 -0.0152551 0.144466 -0.0167987 0.143353 0.135622 -0.00748157 0.00387427 -0.0269487 -0.0195748 -0.0288292
internal_weight=5126.93 4831.7 4615.55 4335.02 280.528 3744.49 3432.73 590.53 277.298 3010.8 433.748 421.924 364.386 341.262 230.545 173.461 156.781 69.3621 79.9685 29.0634 191.379 197.33 178.321 22.8251 18.2697 337.166 37.1441 159.636 142.871 42.919
internal_count=38128 36693 35627 34137 1490 29713 27146 4424 1463 23883 3283 3263 2742 2561 1799 1355 1141 541 437 155 1464 1026 1365 121 97 2534 279 1245 1095 329
is_linear=0
shrinkage=0.05


Tree=4
num_leaves=31
num_cat=0
split_feature=2 10 6 9 9 2 2 0 2 2 0 2 2 2 3 3 3 7 8 7 4 7 6 0 1 8 3 2 7 0
split_gain=3172.65 2424.04 2493.81 135.663 41.9867 39.9676 19.8904 12.8126 8.49516 8.07382 7.41266 4.15914 3.35769 2.81322 3.06564 2.79452 4.63688 2.48561 2.42445 2.40724 2.39773 2.38297 2.1549 2.11609 2.08987 2.04634 2.02877 2.02491 1.99983 2.10287
threshold=-1.6472783355073666 1.0000000180025095e-35 1.0000000180025095e-35 -0.41237732204752287 0.53269405078112431 -0.55487730683853564 0.011559869298780102 -0.13946898973682967 0.33522867326310263 0.42167805569782363 0.29904163097446862 -0.031876137640629493 -0.55487730683853564 0.51579475263234575 0.47940490208663455 -0.042672055096691142 -0.040227062449595292 0.10384874262389486 0.27094448771442875 0.092435536244338465 0.086563595226488418 0.092435536244338465 -3.0261133168365602 -0.20101337490104895 -0.11952209134932869 0.25197955129497224 -0.058958884193906942 0.58530077067149489 1.0000000180025095e-35 -0.25427246422140576
decision_type=2 2 2 2 2 2 2 2 2 2 2 2 2 2 2 2 2 2 2 2 2 2 2 2 2 2 2 2 2 2
left_child=-1 27 5 7 6 -3 11 21 17 -8 15 12 -5 -10 19 26 -17 20 28 22 -7 -4 -15 -19 -18 -11 -9 -2 -13 -30
right_child=1 2 3 4 -6 8 9 10 13 25 -12 18 -14 14 -16 16 24 23 -20 -21 -22 -23 -24 -25 -26 -27 -28 -29 29 -31
leaf_value=0.15320393642839222 0.14899724676395848 -0.057610025707124646 0.0015516037581381698 -0.057941116590163891 -0.049847953974683452 0.12748310955630787 -0.029869939516850449 -0.0087827087004813519 0.10295234372351139 -0.032691451669007492 -0.032217546901390094 0.010958662909961852 -0.022260875069301148 0.091662474360901608 0.090958587263446883 0.04460545953462252 0.03160986453696582 0.11883870409132052 0.0076705987204219771 0.14137731421599339 0.10413051208457676 0.014388856453433707 0.13752201440247608 0.14615949271616793 -0.0084635259559987224 -0.03722707137684813 -0.038881640747656196 0.1329500404966833 -0.02983455536033007 -0.011973794862292575
leaf_weight=315.48471257090569 209.31886994838715 3.0954495146870604 101.22590124607086 6.7404675260186186 300.57716823369265 156.60002794861794 1914.4187614917755 10.032920837402346 54.527749568223953 421.99865792691708 36.103391826152802 7.0987882167100897 302.70865996181965 6.2117113918066025 6.5989870131015769 4.2201130986213675 3.2828021049499503 9.2503521591424924 14.179208457469938 15.856444016098974 11.821602597832678 56.232609242200851 4.3592494577169436 30.310890167951584 364.1452544182539 605.50284174084663 12.666562557220457 21.695972636342049 22.349205538630486 62.751095667481422
leaf_count=1435 964 27 744 57 2567 766 15456 80 284 3461 290 53 2386 31 34 27 24 45 107 78 59 397 22 144 2761 4966 101 102 174 486
internal_value=-0.00036439 -0.0105088 -0.0185399 -0.028362 -0.0319448 0.121121 -0.0303421 -0.00606817 0.122993 -0.0317889 -0.0105325 -0.0201062 -0.0230381 0.109928 0.121444 -0.00854717 -0.00750695 0.128493 -0.0115775 0.129056 0.125844 0.00613613 0.110574 0.139771 -0.00810549 -0.0353643 -0.0255782 0.14749 -0.0145376 -0.0166644
internal_weight=5091.37 4775.88 4544.87 4246.23 3658.32 298.632 3357.75 587.91 295.537 2941.92 430.451 415.827 309.449 87.5541 33.0264 394.348 371.648 207.983 106.378 26.4274 168.422 157.459 10.571 39.5612 367.428 1027.5 22.6995 231.015 92.1991 85.1003
internal_count=38128 36693 35627 34137 29713 1490 27146 4424 1463 23883 3283 3263 2443 449 165 2993 2812 1014 820 131 825 1141 53 189 2785 8427 181 1066 713 660
is_linear=0
shrinkage=0.05


Tree=5
num_leaves=31
num_cat=0
split_feature=2 10 6 9 9 2 2 0 0 0 0 2 9 2 3 3 0 7 7 7 4 8 8 3 0 4 2 8 3 3
split_gain=2735.01 2103.22 2186.93 128.571 41.3138 33.233 19.0859 11.6523 7.8735 7.2668 7.03015 3.98641 3.12809 2.94337 2.89201 3.9441 2.39126 2.19043 2.11852 2.1118 2.03729 1.97545 1.99296 3.02113 1.95659 1.95516 4.75835 1.93676 2.45212 1.93182
threshold=-1.6472783355073666 1.0000000180025095e-35 1.0000000180025095e-35 -0.41237732204752287 0.53269405078112431 -0.55487730683853564 0.011559869298780102 -0.13946898973682967 0.14843372347424486 0.094676427437865612 0.23850724947215798 -0.061080590014537146 0.17385929787336815 -0.15070586051284676 -0.042672055096691142 -0.040227062449595292 0.41487113454634811 1.0000000180025095e-35 0.092435536244338465 0.14043478173961624 -0.049628353001755589 0.27094448771442875 0.24335001676778972 -0.12016270958217494 -0.21181143263773675 0.072740182982586957 0.50240871599965131 0.24335001676778972 0.24432028914732637 -0.058958884193906942
decision_type=2 2 2 2 2 2 2 2 2 2 2 2 2 2 2 2 2 2 2 2 2 2 2 2 2 2 2 2 2 2
left_child=-1 -2 5 7 6 -3 11 18 24 -7 14 12 19 -14 29 -16 -12 -13 -4 -5 -15 22 -19 -24 -8 -17 -27 28 -10 -9
right_child=1 2 3 4 -6 9 8 10 27 -11 16 17 13 20 15 25 -18 21 -20 -21 -22 -23 23 -25 -26 26 -28 -29 -30 -31
leaf_value=0.13854430356439931 0.13323952310150397 -0.057184001990316473 0.0014724408667747904 -0.011514246889509781 -0.0491691597121591 0.11583759606417049 -0.020798881213021717 -0.0083969161562475712 -0.058098574283616811 0.098938032686481228 -0.020587615860278324 0.0057362224087906038 -0.050205368472629498 -0.0035377122520999617 0.041216929586836905 -0.0081344072916331913 -0.045395508918901151 -0.01425836238862919 0.013537557604662366 -0.058567322586774453 -0.026906795180011857 -0.0048795785812436217 -0.037621113403732781 -0.0096265233103535394 -0.029500553750720755 0.011342123150315978 -0.039954044847412828 -0.036435153284587379 -0.030209288533981367 -0.037999906919910828
leaf_weight=330.98261140286922 242.60797344148159 2.965862810611724 101.33196544647217 53.093646802008152 289.76536721736193 221.46731248497963 66.808127969503403 9.9708122014999407 8.1565915122628194 89.244120225310326 55.294498011469841 13.071457847952841 12.959530048072336 9.9710835665464383 4.335582196712493 296.52999559044838 11.783829867839811 97.620955169200897 56.76615172624588 2.4967418685555449 144.22866059839725 35.062986239790916 26.24554818123579 15.229869022965429 1954.8452989310026 31.788041561841965 5.2704928964376441 612.23072063177824 233.65131553262472 12.3213018104434
leaf_count=1435 1066 27 744 424 2567 1026 551 80 68 437 443 99 110 79 27 2255 98 766 397 20 1166 270 210 119 16153 238 41 5151 1960 101
internal_value=-0.000393681 -0.0101424 -0.0179166 -0.0275143 -0.0310707 0.109394 -0.0294746 -0.00579269 -0.0309135 0.110984 -0.0100836 -0.019382 -0.0239022 -0.0273191 -0.00731606 -0.00616538 -0.0249457 -0.0140042 0.0058045 -0.0136276 -0.0253957 -0.0154858 -0.0181594 -0.0273414 -0.029213 -0.0067812 0.00404674 -0.0349388 -0.03115 -0.0247591
internal_weight=5048.1 4717.12 4474.51 4160.83 3575.44 313.677 3285.67 585.393 2875.69 310.711 427.295 409.98 222.75 167.159 360.216 337.924 67.0783 187.231 158.098 55.5904 154.2 174.159 139.096 41.4754 2021.65 333.589 37.0585 854.039 241.808 22.2921
internal_count=38128 36693 35627 34137 29713 1490 27146 4424 23883 1463 3283 3263 1799 1355 2742 2561 541 1464 1141 444 1245 1365 1095 329 16704 2534 279 7179 2028 181
is_linear=0
shrinkage=0.05


Tree=6
num_leaves=31
num_cat=0
split_feature=2 10 6 9 9 2 2 0 2 0 0 2 2 3 3 8 0 0 2 2 4 0 7 8 1 3 2 0 6 2
split_gain=2390.62 1846.86 1933.71 121.73 40.6371 28.117 18.2901 10.5959 7.68509 6.56488 6.31093 3.78801 3.23092 2.42297 3.64674 2.12943 2.00857 5.60032 5.15161 3.36321 3.54922 2.72412 2.32053 1.97693 1.92387 2.0083 2.76879 2.02088 1.93163 2.09062
threshold=-1.6472783355073666 1.0000000180025095e-35 1.0000000180025095e-35 -0.41237732204752287 0.53269405078112431 -0.55487730683853564 0.011559869298780102 -0.13946898973682967 0.42167805569782363 0.29904163097446862 0.094676427437865612 -0.031876137640629493 -0.55487730683853564 -0.042672055096691142 -0.040227062449595292 0.27094448771442875 -0.24737580315523791 -0.22224289983883669 -0.025436955411480645 0.011559869298780102 -0.0086888917653848985 -0.14899657110876616 0.092435536244338465 0.25197955129497224 -0.057718428064609438 0.012935342701238103 0.14233980282468772 0.073810024600364468 -3.0261133168365602 0.20473773221804328
decision_type=2 2 2 2 2 2 2 2 2 2 2 2 2 2 2 2 2 2 2 2 2 2 2 2 2 2 2 2 2 2
left_child=-1 -2 5 7 6 -3 11 16 -8 13 24 12 -5 -9 -15 -13 18 -18 22 -19 21 -21 -4 -10 -7 -26 -27 28 29 -28
right_child=1 2 3 4 -6 10 8 9 23 -11 -12 15 -14 14 -16 -17 17 19 -20 20 -22 -23 -24 -25 25 26 27 -29 -30 -31
leaf_value=0.12708886083877069 0.12200889217942253 -0.056784718592243467 0.0011901937382899107 -0.057148424508868804 -0.048502148088236906 0.092081470893527445 -0.028142450947684961 -0.023956970824898491 -0.030945415391513437 -0.030538393684998229 0.090210782281487475 -0.013309530652773578 -0.02077704393436574 0.038188357864401778 -0.0073884938232621281 0.0075165284445348774 -0.032752978851628277 -0.013073179772904559 0.061197945697891221 -0.013749720837562446 0.021221557328494969 0.02015139863687546 0.021817159022950949 -0.035514345643007282 0.1116661104804384 0.074478631184001914 0.12889254175132425 0.12491672565159509 0.093668682661313757 0.10231331415229994
leaf_weight=342.45108775794506 251.44347162544727 2.8405504748225203 40.218592137098312 6.2354959920048705 279.32825662195683 23.468403890728951 1834.8123607039452 21.900304950773716 402.69252470135689 34.557830795645714 92.88315461575985 90.241574004292488 293.69148305803537 4.4425637125968924 363.36672455817461 14.206348747014998 10.992214709520338 19.17060475051403 4.9555627405643454 18.327171310782436 35.652471989393234 8.7570769190788251 20.62861804664135 574.55772572755814 113.28404715657234 8.4542217403650266 10.276944249868384 10.59139074385166 37.94728501141072 26.412011682987213
leaf_count=1435 1066 27 295 57 2567 107 15456 181 3461 290 437 713 2386 27 2785 107 79 138 36 131 255 64 143 4966 499 39 46 46 171 118
internal_value=-0.00041288 -0.00979002 -0.0173135 -0.0266815 -0.0302089 0.0998377 -0.0286203 -0.00552938 -0.0300501 -0.00965213 0.101214 -0.0186774 -0.0215332 -0.00780002 -0.006838 -0.0104769 0.00549218 0.000758091 0.0121757 0.00525538 0.0108561 -0.00278856 0.00818321 -0.0336316 0.105649 0.107187 0.101771 0.104478 0.101578 0.109758
internal_weight=4998.79 4656.34 4404.89 4078.74 3495.77 326.158 3216.44 582.97 2812.06 424.267 323.317 404.375 299.927 389.71 367.809 104.448 158.702 92.8995 65.8028 81.9073 62.7367 27.0842 60.8472 977.25 230.434 206.966 93.6819 85.2276 74.6362 36.689
internal_count=38128 36693 35627 34137 29713 1490 27146 4424 23883 3283 1463 3263 2443 2993 2812 820 1141 667 474 588 450 195 438 8427 1026 919 420 381 335 164
is_linear=0
shrinkage=0.05


Tree=7
num_leaves=31
num_cat=0
split_feature=2 10 6 9 9 2 2 0 0 0 2 2 2 0 0 2 4 2 0 7 0 2 2 0 9 2 7 7 3 3
split_gain=2112.18 1636.75 1720.94 115.137 39.9533 24.1218 17.5136 10.0142 7.51014 6.17043 5.67878 4.39321 3.6436 3.1979 3.43413 3.15118 3.86649 3.06033 2.48053 2.46049 5.4067 2.45712 2.52468 2.25272 2.91827 2.38832 2.05077 2.04222 2.03965 3.07082
threshold=-1.6472783355073666 1.0000000180025095e-35 1.0000000180025095e-35 -0.41237732204752287 0.53269405078112431 -0.55487730683853564 0.011559869298780102 0.21500422828419258 0.17528196445281888 -0.24737580315523791 0.33522867326310263 -0.025436955411480645 -0.55487730683853564 -0.22224289983883669 -0.14177846266497704 0.011559869298780102 1.0000000180025095e-35 -0.031876137640629493 0.41487113454634811 -0.16581317919205182 0.10711687769902746 0.5123345312100589 0.68725123727106674 -0.032962682961630137 1.0000000180025095e-35 0.033795097887774107 0.092435536244338465 0.10384874262389486 -0.042672055096691142 -0.033775360031641291
decision_type=2 2 2 2 2 2 2 2 2 2 2 2 2 2 2 2 2 2 2 2 2 2 2 2 2 2 2 2 2 2
left_child=-1 -2 5 7 6 -3 12 9 19 11 27 26 -5 -11 15 -15 -17 -14 -9 20 -8 -12 -23 25 -25 -21 -4 -7 -16 -30
right_child=1 2 3 4 -6 10 8 18 -10 13 21 -13 17 14 28 16 -18 -19 -20 23 -22 22 -24 24 -26 -27 -28 -29 29 -31
leaf_value=0.11788872221111851 0.11291907288230255 -0.056410182628372087 0.0011297500449163062 -0.056751404335983219 -0.04784507371688531 0.0950864828231682 -0.027171121902945107 -0.018519223113017225 -0.03356297719000971 -0.031823905051520239 0.076612827856308519 0.055770692929096533 -0.020041325464954407 -0.01253132356426153 -0.020147706110430427 0.00084770509259904587 0.027001373470177406 -0.010029664039484439 -0.044076481668185175 -0.03542338665314354 0.021042998314766914 0.097484482409521012 0.059432249059092536 0.0040378826700459497 -0.029577811354905198 -0.025308834720186163 0.020428060770445157 0.10698551774638232 0.028411664216033302 -0.0059885797217015995
leaf_weight=350.48951178789139 257.91776517033577 2.7195004373788825 40.250875204801559 5.9718298017978659 269.26224082708359 190.22214575111866 19.624823398888115 63.966100513935089 725.66580950468779 10.75361594557762 59.26364454627037 5.1603132784366599 289.36162732541561 19.00391873717308 24.857188627123833 36.993357121944427 22.866840973496437 103.67945059388876 11.148913174867628 62.6799301430583 8.2628685310482961 34.639759466052055 4.9864806234836569 6.495074786245822 1080.7671351879835 847.46247049421072 20.921963721513748 44.494041815400124 6.622462347149848 318.11634469032288
leaf_count=1435 1066 27 295 57 2567 825 169 521 6416 79 273 36 2386 138 204 267 160 820 98 539 72 152 24 57 9342 7288 143 189 43 2440
internal_value=-0.000424491 -0.00945068 -0.0167292 -0.025863 -0.0293589 0.0918988 -0.0277787 -0.00527784 -0.0291985 -0.00274679 0.0931078 0.0114673 -0.0179893 -0.00489351 -0.0042176 0.00520707 0.0108385 -0.0174004 -0.0223125 -0.0276348 -0.0128857 0.0830576 0.0926961 -0.0278407 -0.029377 -0.0260054 0.00773004 0.0973421 -0.00634368 -0.00528705
internal_weight=4944.63 4594.14 4336.22 3999.9 3419.23 336.326 3149.97 580.662 2750.96 505.547 333.606 66.3332 399.013 439.214 428.46 78.8641 59.8602 393.041 75.115 2025.29 27.8877 98.8899 39.6262 1997.4 1087.26 910.142 61.1728 234.716 349.596 324.739
internal_count=38128 36693 35627 34137 29713 1490 27146 4424 23883 3805 1463 474 3263 3331 3252 565 427 3206 619 17467 241 449 176 17226 9399 7827 438 1014 2687 2483
is_linear=0
shrinkage=0.05


end of trees

feature_importances:
ip_transform=77
user_name=50
device_num_transform=30
op_city=19
url=19
http_status_code=12
log_system_transform=10
browser_version=8
is_workday=8
department=7

parameters:
[boosting: gbdt]
[objective: binary]
[metric: auc]
[tree_learner: serial]
[device_type: cpu]
[data_sample_strategy: bagging]
[data: ]
[valid: ]
[num_iterations: 1000]
[learning_rate: 0.05]
[num_leaves: 31]
[num_threads: 0]
[seed: 0]
[deterministic: 0]
[force_col_wise: 0]
[force_row_wise: 0]
[histogram_pool_size: -1]
[max_depth: -1]
[min_data_in_leaf: 20]
[min_sum_hessian_in_leaf: 0.001]
[bagging_fraction: 1]
[pos_bagging_fraction: 1]
[neg_bagging_fraction: 1]
[bagging_freq: 0]
[bagging_seed: 3]
[bagging_by_query: 0]
[feature_fraction: 1]
[feature_fraction_bynode: 1]
[feature_fraction_seed: 2]
[extra_trees: 0]
[extra_seed: 6]
[early_stopping_round: 0]
[early_stopping_min_delta: 0]
[first_metric_only: 0]
[max_delta_step: 0]
[lambda_l1: 0]
[lambda_l2: 0]
[linear_lambda: 0]
[min_gain_to_split: 0]
[drop_rate: 0.1]
[max_drop: 50]
[skip_drop: 0.5]
[xgboost_dart_mode: 0]
[uniform_drop: 0]
[drop_seed: 4]
[top_rate: 0.2]
[other_rate: 0.1]
[min_data_per_group: 100]
[max_cat_threshold: 32]
[cat_l2: 10]
[cat_smooth: 10]
[max_cat_to_onehot: 4]
[top_k: 20]
[monotone_constraints: ]
[monotone_constraints_method: basic]
[monotone_penalty: 0]
[feature_contri: ]
[forcedsplits_filename: ]
[refit_decay_rate: 0.9]
[cegb_tradeoff: 1]
[cegb_penalty_split: 0]
[cegb_penalty_feature_lazy: ]
[cegb_penalty_feature_coupled: ]
[path_smooth: 0]
[interaction_constraints: ]
[verbosity: -1]
[saved_feature_importance_type: 0]
[use_quantized_grad: 0]
[num_grad_quant_bins: 4]
[quant_train_renew_leaf: 0]
[stochastic_rounding: 1]
[linear_tree: 0]
[max_bin: 255]
[max_bin_by_feature: ]
[min_data_in_bin: 3]
[bin_construct_sample_cnt: 200000]
[data_random_seed: 1]
[is_enable_sparse: 1]
[enable_bundle: 1]
[use_missing: 1]
[zero_as_missing: 0]
[feature_pre_filter: 1]
[pre_partition: 0]
[two_round: 0]
[header: 0]
[label_column: ]
[weight_column: ]
[group_column: ]
[ignore_column: ]
[categorical_feature: ]
[forcedbins_filename: ]
[precise_float_parser: 0]
[parser_config_file: ]
[objective_seed: 5]
[num_class: 1]
[is_unbalance: 0]
[scale_pos_weight: 1]
[sigmoid: 1]
[boost_from_average: 1]
[reg_sqrt: 0]
[alpha: 0.9]
[fair_c: 1]
[poisson_max_delta_step: 0.7]
[tweedie_variance_power: 1.5]
[lambdarank_truncation_level: 30]
[lambdarank_norm: 1]
[label_gain: ]
[lambdarank_position_bias_regularization: 0]
[eval_at: ]
[multi_error_top_k: 1]
[auc_mu_weights: ]
[num_machines: 1]
[local_listen_port: 12400]
[time_out: 120]
[machine_list_filename: ]
[machines: ]
[gpu_platform_id: -1]
[gpu_device_id: -1]
[gpu_use_dp: 0]
[num_gpu: 1]

end of parameters

pandas_categorical:[]
